svm_type c_svc
kernel_type linear
nr_class 2
total_sv 59
rho 0.322104
label 1 -1
nr_sv 30 29
SV
0.2107834739284965 3:0.096774 5:0.903226 6:0.741935 7:0.075269 8:0.075269 9:0.032258 10:0.010753 14:0.258065 15:0.215054 16:0.172043 17:0.258065 18:0.096774 21:0.010753 22:0.903226 26:0.010753 27:0.021505 31:0.043011 33:0.010753 35:0.096774 36:0.903226 40:0.967742 41:0.010753 44:0.021505 47:0.032258 48:0.182796 50:0.11828 51:0.193548 52:0.021505 53:0.032258 54:0.053763 55:0.053763 57:0.236559 59:0.010753 63:0.967742 66:0.032258 67:0.946237 68:0.021505 71:0.032258 73:1 74:0.817204 75:0.182796 76:0.946237 77:0.053763 78:0.032258 79:0.010753 80:0.526882 81:0.086022 82:0.344086 83:0.946237 87:0.010753 91:0.010753 99:0.010753 100:0.010753 120:0.010753 
1 1:0.016807 2:0.151261 3:0.218487 4:0.252101 5:0.361345 6:0.621849 7:0.084034 8:0.05042 9:0.07563 10:0.109244 11:0.016807 14:0.159664 15:0.168067 16:0.176471 17:0.260504 18:0.235294 20:1 37:1 40:1 47:0.10084 48:0.218487 49:0.008403 50:0.109244 51:0.159664 52:0.084034 53:0.033613 54:0.033613 55:0.10084 56:0.008403 57:0.05042 59:0.05042 62:0.008403 63:0.983193 65:0.008403 67:0.89916 68:0.033613 70:0.008403 71:0.058824 73:1 74:0.882353 75:0.117647 76:0.932773 77:0.067227 78:0.02521 79:0.016807 80:0.731092 81:0.159664 82:0.067227 83:0.94958 84:0.016807 88:0.008403 98:0.016807 
1 1:0.961039 3:0.012987 4:0.025974 6:0.441558 7:0.090909 10:0.012987 11:0.142857 14:0.415584 15:0.090909 16:0.246753 17:0.181818 18:0.064935 20:1 37:1 42:1 47:0.103896 49:0.142857 50:0.051948 52:0.012987 53:0.090909 55:0.233766 56:0.051948 62:0.545455 64:0.428571 65:0.012987 66:0.012987 67:0.805195 68:0.103896 69:0.012987 70:0.051948 71:0.025974 72:0.844156 73:0.155844 74:1 76:1 78:0.519481 79:0.181818 80:0.298701 83:0.909091 93:0.051948 98:0.012987 103:0.012987 
1 1:0.222222 2:0.262626 3:0.121212 4:0.050505 5:0.343434 6:0.727273 7:0.171717 8:0.020202 11:0.020202 13:0.010101 14:0.171717 15:0.232323 16:0.171717 17:0.282828 18:0.141414 21:0.10101 26:0.121212 27:0.323232 28:0.131313 30:0.020202 31:0.161616 33:0.080808 34:0.060606 35:1 40:0.030303 41:0.161616 42:0.515152 43:0.050505 44:0.181818 45:0.060606 48:0.343434 49:0.090909 50:0.020202 53:0.070707 54:0.060606 55:0.020202 56:0.171717 57:0.161616 62:0.10101 63:0.020202 64:0.767677 65:0.040404 66:0.070707 67:0.808081 68:0.010101 69:0.030303 70:0.010101 71:0.141414 73:1 74:0.979798 75:0.020202 76:1 78:0.181818 79:0.161616 80:0.545455 81:0.010101 82:0.10101 83:0.717172 86:0.010101 94:0.010101 101:0.020202 103:0.111111 107:0.030303 114:0.040404 119:0.010101 
1 1:0.21875 2:0.421875 3:0.21875 4:0.078125 5:0.0625 6:0.6875 7:0.078125 10:0.078125 11:0.03125 14:0.171875 15:0.234375 16:0.171875 17:0.171875 18:0.25 19:0.03125 24:0.453125 25:0.40625 31:0.046875 33:0.0625 35:0.109375 38:0.859375 39:0.03125 40:0.234375 41:0.140625 42:0.609375 44:0.015625 47:0.140625 49:0.109375 50:0.09375 51:0.046875 52:0.09375 53:0.03125 54:0.078125 55:0.25 57:0.015625 58:0.015625 61:0.234375 62:0.296875 64:0.25 65:0.015625 66:0.203125 67:0.765625 68:0.015625 69:0.03125 70:0.03125 71:0.15625 72:0.96875 73:0.03125 74:0.921875 75:0.078125 76:0.953125 77:0.046875 78:0.234375 79:0.140625 80:0.53125 81:0.03125 82:0.0625 83:0.890625 85:0.03125 103:0.046875 110:0.015625 115:0.015625 
1 1:0.007092 2:0.198582 3:0.333333 4:0.248227 5:0.212766 6:0.765957 7:0.056738 8:0.078014 9:0.042553 10:0.042553 11:0.014184 14:0.099291 15:0.198582 16:0.241135 17:0.234043 18:0.22695 19:0.787234 23:0.035461 29:0.170213 32:0.007092 39:1 40:0.992908 43:0.007092 47:0.028369 48:0.028369 49:0.014184 50:0.148936 51:0.702128 55:0.049645 57:0.014184 59:0.014184 61:0.049645 62:0.007092 63:0.93617 66:0.007092 67:0.971631 68:0.007092 71:0.021277 72:0.049645 73:0.950355 74:0.950355 75:0.049645 76:0.93617 77:0.06383 78:0.028369 79:0.014184 80:0.411348 81:0.219858 82:0.326241 83:0.929078 87:0.007092 91:0.007092 94:0.007092 103:0.014184 106:0.007092 109:0.007092 
1 1:0.486726 2:0.318584 3:0.070796 4:0.088496 5:0.035398 6:0.840708 7:0.035398 8:0.00885 10:0.017699 11:0.035398 14:0.176991 15:0.212389 16:0.150442 17:0.19469 18:0.265487 22:1 36:1 40:0.026549 42:0.725664 43:0.141593 44:0.026549 45:0.044248 46:0.035398 48:0.00885 49:0.327434 50:0.053097 53:0.168142 54:0.061947 55:0.176991 56:0.115044 57:0.00885 58:0.017699 61:0.017699 62:0.19469 64:0.132743 65:0.123894 66:0.530973 67:0.663717 68:0.00885 69:0.00885 71:0.318584 72:1 74:1 76:1 78:0.637168 79:0.238938 80:0.106195 81:0.00885 82:0.00885 83:0.902655 86:0.00885 103:0.026549 108:0.00885 112:0.017699 120:0.017699 
1 2:0.926829 3:0.02439 5:0.04878 6:0.317073 7:0.04878 10:0.146341 11:0.097561 14:0.170732 15:0.390244 16:0.121951 17:0.073171 18:0.243902 20:1 37:1 42:0.97561 43:0.02439 47:0.121951 48:0.04878 49:0.073171 50:0.04878 54:0.097561 55:0.121951 57:0.073171 59:0.02439 62:0.243902 64:0.268293 65:0.04878 66:0.439024 67:0.463415 71:0.536585 72:0.902439 73:0.097561 74:1 76:1 78:0.243902 79:0.02439 80:0.731707 83:0.95122 
1 1:0.593023 2:0.116279 3:0.232558 4:0.034884 5:0.023256 6:0.860465 7:0.081395 9:0.011628 10:0.023256 14:0.139535 15:0.162791 16:0.418605 17:0.104651 18:0.174419 22:0.976744 24:0.011628 25:0.011628 36:0.976744 38:0.023256 40:0.023256 41:0.127907 42:0.837209 45:0.011628 47:0.023256 48:0.151163 49:0.104651 50:0.127907 53:0.267442 54:0.069767 55:0.05814 56:0.046512 57:0.116279 60:0.011628 62:0.709302 64:0.127907 65:0.093023 66:0.069767 67:0.755814 68:0.034884 69:0.046512 70:0.011628 71:0.151163 72:0.023256 73:0.976744 74:0.988372 75:0.011628 76:1 78:0.44186 79:0.023256 80:0.488372 82:0.046512 83:0.906977 87:0.011628 94:0.011628 103:0.023256 104:0.023256 112:0.011628 121:0.011628 
0.04572173793338932 2:0.207207 3:0.207207 4:0.585586 6:0.684685 7:0.072072 8:0.054054 9:0.108108 10:0.054054 11:0.018018 14:0.162162 15:0.189189 16:0.234234 17:0.207207 18:0.207207 22:0.990991 27:0.009009 35:0.009009 36:0.990991 40:1 47:0.063063 48:0.369369 50:0.108108 51:0.054054 52:0.045045 53:0.018018 54:0.153153 55:0.063063 56:0.009009 57:0.081081 59:0.027027 61:0.009009 63:0.990991 67:0.900901 68:0.018018 71:0.081081 72:0.009009 73:0.990991 74:0.837838 75:0.162162 76:0.882883 77:0.117117 78:0.027027 79:0.018018 80:0.558559 81:0.162162 82:0.234234 83:0.927928 87:0.009009 88:0.018018 93:0.009009 99:0.009009 105:0.009009 
0.6200154278689646 2:0.431373 3:0.294118 4:0.117647 5:0.156863 6:0.862745 7:0.078431 8:0.019608 10:0.039216 14:0.176471 15:0.196078 16:0.294118 17:0.215686 18:0.117647 20:0.921569 25:0.078431 37:0.921569 38:0.078431 41:0.607843 42:0.235294 43:0.039216 44:0.078431 45:0.039216 47:0.058824 48:0.54902 49:0.039216 50:0.098039 51:0.019608 54:0.039216 55:0.078431 57:0.098039 59:0.019608 62:0.27451 64:0.627451 65:0.019608 66:0.078431 67:0.784314 68:0.039216 69:0.058824 71:0.117647 73:1 74:0.960784 75:0.039216 76:0.980392 77:0.019608 78:0.019608 79:0.039216 80:0.882353 81:0.019608 82:0.039216 83:0.823529 87:0.019608 96:0.078431 98:0.019608 114:0.019608 
0.9770880261169874 2:0.012658 3:0.101266 4:0.088608 5:0.797468 6:0.278481 7:0.126582 8:0.227848 9:0.063291 10:0.063291 11:0.177215 14:0.367089 15:0.113924 16:0.113924 17:0.177215 18:0.227848 19:0.202532 21:0.012658 23:0.139241 27:0.012658 29:0.379747 31:0.025316 32:0.227848 35:0.050633 39:0.949367 40:1 47:0.012658 48:0.050633 50:0.050633 51:0.253165 52:0.518987 54:0.012658 55:0.012658 57:0.012658 59:0.012658 61:0.037975 63:0.962025 67:0.936709 68:0.037975 71:0.025316 72:0.037975 73:0.962025 74:1 76:0.468354 77:0.531646 78:0.063291 79:0.025316 80:0.177215 81:0.088608 82:0.64557 83:0.835443 88:0.012658 92:0.012658 93:0.012658 104:0.012658 122:0.012658 
1 1:0.007937 2:0.079365 3:0.293651 4:0.563492 5:0.055556 6:0.698413 7:0.103175 8:0.063492 9:0.039683 10:0.031746 11:0.063492 14:0.134921 15:0.301587 16:0.126984 17:0.230159 18:0.206349 19:0.642857 21:0.015873 23:0.134921 29:0.126984 31:0.007937 32:0.071429 35:0.02381 39:0.97619 40:0.992063 41:0.007937 47:0.02381 48:0.031746 50:0.206349 52:0.619048 53:0.015873 54:0.015873 55:0.055556 57:0.02381 59:0.007937 63:0.992063 66:0.007937 67:0.912698 68:0.047619 69:0.007937 71:0.031746 73:1 74:0.97619 75:0.02381 76:0.920635 77:0.079365 78:0.015873 79:0.031746 80:0.380952 81:0.15873 82:0.412698 83:0.904762 91:0.007937 94:0.007937 95:0.015873 98:0.015873 105:0.007937 106:0.007937 110:0.007937 111:0.007937 
1 1:0.012658 2:0.075949 3:0.189873 4:0.582278 5:0.139241 6:0.177215 7:0.037975 8:0.240506 9:0.063291 10:0.417722 11:0.063291 14:0.151899 15:0.151899 16:0.455696 17:0.139241 18:0.101266 19:0.202532 23:0.278481 29:0.455696 32:0.063291 39:1 40:0.949367 41:0.012658 42:0.012658 43:0.012658 44:0.012658 50:0.012658 51:0.075949 52:0.886076 55:0.025316 61:0.392405 62:0.012658 63:0.544304 64:0.012658 65:0.012658 66:0.025316 67:0.898734 68:0.025316 69:0.025316 70:0.012658 71:0.037975 72:0.405063 73:0.594937 74:0.544304 75:0.455696 76:0.974684 77:0.025316 78:0.050633 79:0.126582 80:0.43038 81:0.303797 82:0.088608 83:0.936709 90:0.012658 93:0.012658 96:0.012658 98:0.012658 
1 1:0.029703 2:0.09901 3:0.376238 4:0.148515 5:0.346535 6:0.465347 7:0.029703 8:0.009901 10:0.227723 11:0.138614 14:0.138614 15:0.237624 16:0.247525 17:0.138614 18:0.237624 22:1 36:1 40:0.019802 41:0.831683 43:0.108911 44:0.039604 47:0.009901 48:0.09901 49:0.188119 50:0.079208 51:0.039604 52:0.009901 53:0.039604 54:0.09901 55:0.207921 56:0.039604 57:0.029703 58:0.019802 59:0.009901 61:0.019802 62:0.128713 64:0.366337 65:0.029703 66:0.455446 67:0.811881 68:0.029703 69:0.009901 71:0.148515 72:0.930693 73:0.069307 74:0.950495 75:0.049505 76:0.990099 77:0.009901 78:0.059406 79:0.217822 80:0.70297 82:0.019802 83:0.950495 93:0.019802 98:0.009901 103:0.009901 104:0.009901 
0.5748898194633005 1:0.008929 2:0.080357 3:0.223214 4:0.1875 5:0.5 6:0.410714 7:0.133929 8:0.178571 9:0.107143 10:0.035714 11:0.098214 14:0.160714 15:0.330357 16:0.232143 17:0.089286 18:0.1875 19:0.383929 23:0.258929 24:0.008929 27:0.008929 29:0.241071 32:0.098214 35:0.008929 38:0.008929 39:0.982143 40:0.946429 41:0.035714 44:0.008929 45:0.008929 47:0.017857 49:0.008929 50:0.098214 51:0.410714 52:0.330357 54:0.017857 55:0.044643 56:0.017857 59:0.017857 61:0.008929 63:0.9375 64:0.026786 65:0.008929 66:0.017857 67:0.883929 68:0.017857 71:0.098214 72:0.008929 73:0.991071 75:1 76:1 78:0.026786 79:0.026786 80:0.205357 81:0.035714 82:0.705357 83:0.9375 85:0.008929 91:0.008929 98:0.008929 99:0.008929 119:0.008929 
1 1:0.808219 2:0.082192 3:0.041096 4:0.027397 5:0.041096 6:0.821918 7:0.041096 10:0.041096 11:0.054795 14:0.164384 15:0.273973 16:0.136986 17:0.109589 18:0.315068 20:0.931507 24:0.041096 25:0.027397 37:0.931507 38:0.068493 41:0.054795 42:0.90411 43:0.027397 45:0.013699 47:0.013699 48:0.178082 49:0.178082 50:0.164384 52:0.041096 53:0.041096 54:0.027397 55:0.164384 56:0.054795 57:0.068493 59:0.027397 62:0.246575 64:0.60274 65:0.09589 66:0.054795 67:0.849315 68:0.068493 71:0.082192 73:1 74:1 76:0.972603 77:0.027397 78:0.616438 79:0.082192 80:0.246575 82:0.054795 83:0.849315 90:0.027397 92:0.013699 93:0.013699 101:0.027397 102:0.041096 109:0.013699 119:0.013699 
1 1:0.933333 4:0.066667 6:1 14:0.9 15:0.033333 16:0.033333 17:0.033333 20:1 37:1 41:0.3 42:0.6 43:0.033333 44:0.033333 45:0.033333 49:0.966667 58:0.033333 62:0.733333 64:0.233333 66:0.033333 67:1 72:0.866667 73:0.133333 74:1 76:1 78:0.566667 79:0.066667 80:0.333333 82:0.033333 83:0.966667 
0.5950734667569911 2:0.96875 5:0.03125 11:1 14:0.96875 17:0.03125 32:1 39:1 40:1 51:1 63:1 67:1 73:1 75:1 76:1 82:1 83:1 
0.8755583851883728 1:0.055556 2:0.083333 3:0.527778 4:0.166667 5:0.166667 6:0.388889 7:0.277778 9:0.027778 10:0.027778 11:0.222222 14:0.027778 15:0.138889 16:0.055556 17:0.083333 18:0.694444 19:0.083333 20:0.027778 21:0.111111 22:0.222222 23:0.055556 24:0.166667 25:0.166667 27:0.027778 28:0.027778 29:0.055556 31:0.027778 32:0.027778 35:0.194444 36:0.222222 37:0.027778 38:0.333333 39:0.222222 41:0.944444 42:0.055556 47:0.055556 48:0.111111 49:0.055556 50:0.083333 51:0.055556 52:0.222222 53:0.027778 54:0.138889 55:0.055556 56:0.055556 57:0.083333 62:0.277778 64:0.638889 66:0.083333 67:0.972222 71:0.027778 73:1 74:0.888889 75:0.111111 76:0.944444 77:0.055556 78:0.083333 79:0.027778 80:0.472222 81:0.055556 82:0.361111 83:0.944444 95:0.027778 
1 1:0.363636 2:0.5 3:0.136364 6:0.840909 11:0.022727 17:0.977273 18:0.022727 22:1 36:1 42:1 48:0.022727 49:0.090909 50:0.136364 53:0.090909 54:0.386364 55:0.090909 57:0.022727 58:0.022727 62:0.022727 64:0.545455 65:0.25 66:0.181818 67:0.613636 68:0.045455 70:0.022727 71:0.318182 72:0.636364 73:0.363636 74:0.977273 75:0.022727 76:1 78:0.022727 80:0.954545 82:0.022727 83:0.931818 103:0.022727 107:0.022727 121:0.022727 
1 1:0.09375 2:0.052083 3:0.34375 4:0.270833 5:0.239583 6:0.645833 7:0.0625 8:0.020833 9:0.020833 10:0.041667 11:0.145833 14:0.104167 15:0.302083 16:0.25 17:0.208333 18:0.135417 20:0.96875 21:0.03125 35:0.03125 37:0.96875 40:0.25 41:0.604167 42:0.072917 43:0.052083 44:0.020833 47:0.125 48:0.020833 49:0.125 50:0.072917 51:0.104167 54:0.03125 55:0.447917 57:0.010417 61:0.239583 62:0.041667 64:0.3125 65:0.052083 66:0.354167 67:0.6875 68:0.052083 71:0.260417 72:1 74:0.958333 75:0.041667 76:0.958333 77:0.041667 78:0.041667 79:0.135417 80:0.791667 81:0.020833 82:0.010417 83:0.916667 87:0.020833 95:0.020833 98:0.010417 103:0.020833 105:0.010417 
1 2:0.010989 3:0.043956 4:0.043956 5:0.901099 6:0.615385 7:0.065934 8:0.010989 9:0.043956 10:0.043956 11:0.076923 12:0.021978 14:0.186813 15:0.21978 16:0.153846 17:0.131868 18:0.307692 19:0.021978 20:0.098901 21:0.120879 22:0.010989 23:0.010989 24:0.065934 25:0.010989 26:0.230769 27:0.153846 29:0.054945 30:0.021978 31:0.153846 32:0.021978 33:0.021978 35:0.703297 36:0.010989 37:0.098901 38:0.076923 39:0.10989 40:0.032967 41:0.406593 42:0.153846 43:0.054945 44:0.241758 45:0.10989 47:0.021978 48:0.120879 49:0.186813 50:0.087912 51:0.043956 52:0.065934 53:0.021978 54:0.175824 55:0.076923 56:0.054945 58:0.021978 61:0.021978 62:0.010989 64:0.736264 65:0.021978 66:0.208791 67:0.692308 68:0.098901 69:0.032967 71:0.175824 72:1 74:0.967033 75:0.032967 76:0.989011 77:0.010989 78:0.384615 79:0.076923 80:0.472527 81:0.010989 82:0.054945 83:0.791209 86:0.010989 88:0.010989 94:0.087912 95:0.043956 103:0.021978 107:0.010989 
1 1:0.254545 2:0.527273 3:0.063636 4:0.063636 5:0.090909 6:0.863636 7:0.009091 9:0.018182 10:0.054545 11:0.036364 14:0.190909 15:0.372727 16:0.327273 17:0.045455 18:0.063636 22:1 36:1 40:0.145455 41:0.045455 42:0.681818 43:0.054545 44:0.063636 45:0.009091 47:0.009091 48:0.009091 49:0.072727 50:0.036364 51:0.009091 53:0.090909 54:0.109091 55:0.645455 61:0.127273 62:0.127273 64:0.709091 65:0.009091 66:0.027273 67:0.963636 68:0.009091 71:0.027273 72:1 74:0.981818 75:0.018182 76:0.990909 77:0.009091 78:0.027273 79:0.027273 80:0.909091 81:0.036364 83:0.972727 85:0.009091 87:0.009091 99:0.009091 
1 1:0.052632 2:0.189474 3:0.326316 4:0.231579 5:0.2 6:0.789474 7:0.084211 9:0.031579 10:0.042105 14:0.221053 15:0.305263 16:0.2 17:0.115789 18:0.157895 19:0.768421 23:0.073684 29:0.126316 32:0.031579 39:1 40:0.084211 41:0.294737 42:0.484211 43:0.052632 44:0.031579 45:0.052632 47:0.042105 48:0.010526 49:0.031579 50:0.178947 51:0.242105 52:0.389474 55:0.031579 59:0.021053 61:0.084211 62:0.042105 64:0.8 66:0.073684 67:0.842105 68:0.073684 70:0.010526 71:0.073684 72:0.463158 73:0.536842 74:0.810526 75:0.189474 76:0.894737 77:0.105263 78:0.094737 79:0.063158 80:0.284211 81:0.189474 82:0.368421 83:0.852632 85:0.021053 87:0.010526 89:0.010526 90:0.010526 91:0.010526 100:0.010526 103:0.010526 110:0.031579 113:0.021053 
1 1:0.223684 2:0.467105 3:0.111842 4:0.059211 5:0.138158 6:0.901316 7:0.072368 10:0.006579 11:0.006579 14:0.421053 15:0.171053 16:0.164474 17:0.098684 18:0.144737 22:1 36:1 41:0.348684 42:0.519737 43:0.078947 44:0.019737 45:0.032895 47:0.006579 48:0.322368 49:0.065789 50:0.039474 51:0.006579 52:0.006579 53:0.171053 54:0.059211 55:0.052632 56:0.118421 57:0.131579 59:0.006579 64:0.914474 65:0.013158 66:0.072368 67:0.881579 68:0.046053 69:0.006579 70:0.013158 71:0.052632 73:1 74:0.967105 75:0.032895 76:1 78:0.164474 79:0.013158 80:0.743421 81:0.026316 82:0.052632 83:0.934211 84:0.006579 96:0.006579 105:0.006579 114:0.006579 119:0.006579 122:0.006579 
1 1:0.012821 2:0.179487 3:0.282051 4:0.269231 5:0.25641 6:0.717949 7:0.089744 8:0.064103 9:0.051282 10:0.051282 11:0.012821 14:0.25641 15:0.064103 16:0.371795 17:0.115385 18:0.192308 21:0.025641 24:0.205128 25:0.705128 27:0.025641 28:0.012821 31:0.012821 33:0.012821 35:0.089744 38:0.910256 40:0.833333 41:0.012821 42:0.064103 43:0.076923 44:0.012821 47:0.038462 48:0.448718 49:0.025641 50:0.115385 51:0.128205 52:0.089744 54:0.012821 55:0.038462 56:0.012821 57:0.025641 59:0.051282 62:0.012821 63:0.833333 64:0.128205 65:0.012821 66:0.012821 67:0.923077 68:0.038462 70:0.012821 71:0.025641 73:1 74:0.833333 75:0.166667 76:0.935897 77:0.064103 78:0.025641 79:0.064103 80:0.576923 81:0.051282 82:0.282051 83:0.858974 86:0.012821 87:0.025641 98:0.012821 100:0.064103 101:0.012821 
1 2:0.846154 3:0.107692 4:0.046154 6:0.876923 7:0.030769 10:0.030769 14:0.292308 15:0.476923 17:0.107692 18:0.123077 19:0.015385 22:0.984615 36:0.984615 39:0.015385 40:0.030769 41:0.015385 42:0.938462 45:0.015385 47:0.015385 48:0.107692 49:0.107692 50:0.092308 52:0.030769 53:0.107692 54:0.123077 55:0.092308 56:0.061538 57:0.2 62:0.923077 65:0.030769 66:0.046154 67:0.784615 71:0.215385 72:0.276923 73:0.723077 74:1 76:1 78:0.138462 80:0.861538 83:0.953846 102:0.030769 105:0.015385 
1 2:0.125 3:0.263889 4:0.416667 5:0.194444 6:0.75 7:0.055556 8:0.125 10:0.041667 11:0.013889 14:0.208333 15:0.277778 16:0.166667 17:0.152778 18:0.194444 20:0.986111 27:0.013889 35:0.013889 37:0.986111 40:0.972222 41:0.027778 47:0.027778 48:0.138889 49:0.013889 50:0.097222 51:0.486111 52:0.013889 54:0.041667 55:0.041667 56:0.013889 57:0.111111 62:0.013889 63:0.944444 64:0.013889 65:0.013889 66:0.013889 67:0.930556 68:0.013889 70:0.013889 71:0.041667 73:1 74:0.666667 75:0.333333 76:0.902778 77:0.097222 78:0.013889 79:0.027778 80:0.027778 81:0.069444 82:0.861111 83:0.875 87:0.013889 88:0.027778 95:0.013889 101:0.013889 109:0.013889 
1 1:0.870504 2:0.100719 3:0.021583 4:0.007194 6:0.863309 7:0.014388 10:0.007194 11:0.014388 14:0.223022 15:0.158273 16:0.122302 17:0.136691 18:0.359712 19:0.007194 21:0.417266 24:0.007194 25:0.014388 26:0.172662 27:0.035971 28:0.086331 30:0.035971 31:0.194245 33:0.014388 34:0.014388 35:0.971223 38:0.021583 39:0.007194 41:0.014388 42:0.94964 43:0.021583 44:0.007194 45:0.007194 48:0.064748 49:0.431655 50:0.143885 53:0.107914 54:0.028777 55:0.057554 56:0.043165 58:0.021583 62:0.676259 64:0.093525 65:0.079137 66:0.151079 67:0.863309 68:0.021583 70:0.021583 71:0.093525 72:0.532374 73:0.467626 74:0.992806 75:0.007194 76:0.992806 77:0.007194 78:0.820144 79:0.05036 80:0.107914 82:0.021583 83:0.726619 85:0.007194 93:0.007194 98:0.007194 101:0.007194 102:0.007194 103:0.194245 112:0.014388 114:0.014388 119:0.014388 
-1 1:0.101911 2:0.363057 3:0.280255 4:0.197452 5:0.057325 6:0.808917 7:0.070064 8:0.019108 9:0.025478 10:0.031847 11:0.025478 14:0.184713 15:0.171975 16:0.254777 17:0.235669 18:0.152866 20:0.88535 21:0.025478 26:0.006369 27:0.006369 28:0.006369 31:0.070064 35:0.11465 37:0.88535 40:0.006369 41:0.363057 42:0.503185 43:0.10828 44:0.012739 45:0.006369 47:0.025478 48:0.280255 49:0.101911 50:0.121019 51:0.076433 52:0.044586 53:0.050955 54:0.063694 55:0.063694 56:0.025478 57:0.11465 59:0.012739 62:0.025478 64:0.929936 65:0.019108 66:0.025478 67:0.859873 68:0.038217 69:0.006369 71:0.095541 73:1 74:0.955414 75:0.044586 76:0.955414 77:0.044586 78:0.10828 79:0.025478 80:0.496815 81:0.121019 82:0.248408 83:0.917197 84:0.006369 87:0.006369 95:0.006369 96:0.025478 98:0.012739 103:0.012739 112:0.006369 
-1 1:0.333333 2:0.514124 3:0.050847 4:0.062147 5:0.039548 6:0.903955 7:0.00565 9:0.028249 10:0.039548 11:0.011299 14:0.20904 15:0.305085 16:0.169492 17:0.20339 18:0.112994 22:1 36:1 40:0.039548 41:0.028249 42:0.898305 43:0.016949 44:0.00565 45:0.011299 48:0.022599 49:0.079096 50:0.062147 51:0.050847 52:0.016949 53:0.067797 54:0.163842 55:0.514124 57:0.011299 61:0.033898 62:0.163842 64:0.706215 65:0.050847 66:0.045198 67:0.971751 68:0.022599 71:0.00565 72:1 74:0.983051 75:0.016949 76:0.983051 77:0.016949 78:0.050847 79:0.033898 80:0.841808 81:0.022599 82:0.050847 83:0.966102 87:0.00565 103:0.022599 109:0.00565 
-1 1:0.051919 2:0.200903 3:0.243792 4:0.221219 5:0.282167 6:0.679458 7:0.137698 8:0.036117 9:0.022573 10:0.051919 11:0.018059 12:0.002257 14:0.182844 15:0.189616 16:0.216704 17:0.223476 18:0.187359 22:1 36:1 40:0.997743 46:0.002257 47:0.011287 48:0.264108 49:0.063205 50:0.088036 51:0.074492 52:0.015801 53:0.063205 54:0.103837 55:0.045147 56:0.054176 57:0.126411 59:0.038375 63:0.997743 65:0.002257 67:0.907449 68:0.015801 69:0.011287 70:0.006772 71:0.058691 73:1 74:0.93228 75:0.06772 76:0.970655 77:0.029345 78:0.094808 79:0.024831 80:0.553047 81:0.069977 82:0.257336 83:0.918736 85:0.002257 86:0.002257 88:0.002257 90:0.002257 94:0.006772 95:0.006772 98:0.002257 99:0.004515 102:0.002257 103:0.013544 105:0.004515 109:0.002257 111:0.002257 112:0.002257 114:0.004515 117:0.002257 119:0.002257 
-1 1:0.027027 2:0.072072 3:0.288288 4:0.387387 5:0.225225 6:0.486486 7:0.045045 8:0.027027 9:0.09009 10:0.252252 11:0.063063 14:0.351351 15:0.108108 16:0.225225 17:0.207207 18:0.108108 19:0.675676 23:0.036036 29:0.27027 32:0.018018 39:1 40:0.207207 41:0.585586 42:0.054054 43:0.036036 44:0.081081 45:0.036036 47:0.018018 48:0.018018 49:0.063063 50:0.09009 51:0.189189 52:0.423423 53:0.009009 55:0.135135 58:0.018018 61:0.198198 62:0.081081 64:0.252252 65:0.009009 66:0.459459 67:0.810811 68:0.081081 70:0.018018 71:0.09009 72:0.927928 73:0.072072 74:0.945946 75:0.054054 76:0.963964 77:0.036036 78:0.18018 79:0.081081 80:0.513514 81:0.108108 82:0.117117 83:0.855856 88:0.036036 89:0.009009 93:0.009009 95:0.009009 96:0.009009 98:0.036036 121:0.009009 
-1 1:0.091743 2:0.206422 3:0.224771 4:0.215596 5:0.261468 6:0.665138 7:0.165138 8:0.027523 9:0.018349 10:0.041284 11:0.041284 14:0.220183 15:0.206422 16:0.192661 17:0.16055 18:0.220183 20:1 37:1 40:1 47:0.036697 48:0.178899 49:0.041284 50:0.151376 51:0.137615 52:0.06422 53:0.036697 54:0.06422 55:0.055046 56:0.068807 57:0.082569 59:0.041284 62:0.004587 63:0.981651 65:0.013761 67:0.889908 68:0.018349 69:0.018349 70:0.018349 71:0.055046 73:1 74:0.944954 75:0.055046 76:0.96789 77:0.03211 78:0.110092 79:0.03211 80:0.422018 81:0.082569 82:0.353211 83:0.931193 91:0.004587 98:0.004587 100:0.009174 101:0.004587 103:0.004587 107:0.004587 108:0.004587 109:0.009174 121:0.004587 
-1 1:0.015625 2:0.15625 3:0.21875 4:0.273438 5:0.335938 6:0.414062 7:0.265625 8:0.039062 9:0.039062 10:0.140625 11:0.039062 14:0.296875 15:0.195312 16:0.171875 17:0.164062 18:0.171875 19:0.695312 23:0.046875 29:0.210938 32:0.046875 39:1 40:1 47:0.007812 48:0.054688 49:0.015625 50:0.15625 51:0.171875 52:0.398438 53:0.023438 54:0.007812 55:0.039062 56:0.039062 57:0.015625 59:0.007812 62:0.007812 63:0.992188 67:0.875 68:0.0625 70:0.007812 71:0.054688 73:1 74:0.953125 75:0.046875 76:0.96875 77:0.03125 78:0.210938 79:0.085938 80:0.15625 81:0.148438 82:0.398438 83:0.890625 86:0.007812 87:0.007812 90:0.023438 93:0.007812 94:0.015625 100:0.007812 
-0.9054921627013618 1:0.027523 2:0.174312 3:0.431193 4:0.284404 5:0.082569 6:0.724771 7:0.055046 9:0.027523 10:0.045872 11:0.110092 14:0.238532 15:0.192661 16:0.174312 17:0.247706 18:0.146789 20:1 37:1 41:0.779817 42:0.036697 43:0.110092 44:0.045872 45:0.027523 47:0.055046 48:0.036697 49:0.110092 50:0.12844 51:0.174312 52:0.055046 53:0.018349 54:0.009174 55:0.357798 57:0.018349 62:0.045872 66:0.954128 67:0.733945 68:0.018349 69:0.009174 71:0.238532 72:0.944954 73:0.055046 74:0.990826 75:0.009174 76:0.990826 77:0.009174 78:0.137615 79:0.155963 80:0.477064 81:0.100917 82:0.12844 83:0.944954 88:0.009174 98:0.018349 103:0.018349 
-1 2:0.808511 3:0.021277 5:0.170213 7:0.021277 8:0.085106 9:0.170213 11:0.723404 14:0.893617 15:0.106383 29:0.12766 32:0.87234 39:1 40:1 51:0.914894 52:0.085106 63:1 67:0.978723 71:0.021277 73:1 74:0.12766 75:0.87234 76:0.914894 77:0.085106 80:0.042553 82:0.957447 83:0.978723 101:0.021277 
-0.9425140899917246 1:0.961111 2:0.033333 3:0.005556 6:0.683333 7:0.022222 9:0.011111 10:0.027778 11:0.088889 14:0.283333 15:0.188889 16:0.122222 17:0.266667 18:0.138889 20:1 37:1 41:0.005556 42:0.977778 45:0.016667 47:0.038889 48:0.027778 49:0.194444 50:0.144444 51:0.016667 52:0.033333 53:0.05 54:0.027778 55:0.205556 56:0.044444 57:0.033333 58:0.005556 59:0.011111 62:0.9 64:0.066667 65:0.027778 66:0.005556 67:0.866667 68:0.061111 69:0.011111 71:0.061111 72:0.494444 73:0.505556 74:0.977778 75:0.022222 76:0.955556 77:0.044444 78:0.9 79:0.044444 81:0.011111 82:0.044444 83:0.944444 85:0.005556 90:0.005556 91:0.005556 93:0.016667 102:0.011111 106:0.005556 115:0.005556 
-1 1:0.85567 2:0.092784 3:0.020619 4:0.010309 5:0.020619 6:0.824742 7:0.020619 8:0.020619 9:0.010309 10:0.010309 11:0.010309 14:0.092784 15:0.298969 16:0.113402 17:0.226804 18:0.268041 22:1 36:1 41:0.030928 42:0.958763 44:0.010309 48:0.072165 49:0.154639 50:0.14433 51:0.020619 53:0.237113 54:0.061856 55:0.113402 56:0.051546 57:0.041237 62:0.721649 64:0.051546 65:0.113402 66:0.113402 67:0.680412 68:0.041237 69:0.010309 70:0.030928 71:0.237113 72:0.309278 73:0.690722 74:0.989691 75:0.010309 76:0.989691 77:0.010309 78:0.969072 79:0.030928 83:0.907216 86:0.020619 87:0.010309 93:0.010309 102:0.010309 111:0.010309 115:0.010309 
-1 1:0.064516 2:0.564516 3:0.193548 4:0.112903 5:0.064516 6:0.669355 7:0.056452 8:0.008065 9:0.048387 10:0.120968 11:0.072581 14:0.209677 15:0.201613 16:0.201613 17:0.185484 18:0.201613 19:0.782258 23:0.016129 29:0.177419 32:0.024194 39:1 42:0.927419 43:0.016129 44:0.008065 45:0.048387 47:0.048387 48:0.024194 49:0.032258 50:0.104839 51:0.153226 52:0.427419 55:0.177419 59:0.008065 62:0.104839 64:0.846774 65:0.032258 66:0.016129 67:0.806452 68:0.056452 69:0.008065 70:0.016129 71:0.112903 72:1 74:0.935484 75:0.064516 76:0.967742 77:0.032258 78:0.112903 79:0.096774 80:0.483871 81:0.112903 82:0.193548 83:0.879032 85:0.008065 88:0.008065 89:0.008065 98:0.024194 103:0.016129 106:0.016129 108:0.008065 110:0.016129 122:0.008065 
-1 1:0.051724 2:0.293103 3:0.310345 4:0.215517 5:0.12931 6:0.767241 7:0.051724 8:0.025862 9:0.025862 10:0.068966 11:0.043103 14:0.206897 15:0.258621 16:0.206897 17:0.206897 18:0.12069 19:0.336207 23:0.025862 24:0.206897 25:0.37069 29:0.043103 32:0.017241 38:0.577586 39:0.422414 40:1 47:0.043103 48:0.258621 49:0.025862 50:0.137931 51:0.112069 52:0.094828 53:0.017241 54:0.077586 55:0.103448 56:0.043103 57:0.043103 59:0.025862 63:1 67:0.844828 68:0.077586 69:0.008621 70:0.017241 71:0.051724 73:1 74:0.974138 75:0.025862 76:0.956897 77:0.043103 78:0.025862 79:0.017241 80:0.758621 81:0.086207 82:0.112069 83:0.836207 85:0.034483 86:0.008621 87:0.017241 88:0.008621 90:0.008621 93:0.008621 94:0.008621 96:0.008621 98:0.017241 109:0.008621 111:0.008621 112:0.008621 119:0.008621 
-0.3052950459513517 1:0.128205 2:0.282051 3:0.205128 4:0.264957 5:0.119658 6:0.794872 7:0.025641 9:0.017094 10:0.034188 11:0.042735 14:0.102564 15:0.205128 16:0.213675 17:0.188034 18:0.290598 22:1 36:1 40:0.076923 41:0.188034 42:0.529915 43:0.153846 44:0.051282 47:0.017094 48:0.059829 49:0.307692 50:0.051282 51:0.042735 52:0.034188 53:0.102564 54:0.17094 55:0.094017 57:0.025641 58:0.008547 61:0.076923 62:0.136752 64:0.17094 65:0.136752 66:0.478632 67:0.008547 68:0.051282 69:0.008547 71:0.931624 72:0.888889 73:0.111111 74:0.957265 75:0.042735 76:0.982906 77:0.017094 78:0.153846 79:0.205128 80:0.589744 81:0.017094 82:0.034188 83:0.897436 88:0.008547 93:0.025641 98:0.008547 101:0.008547 108:0.008547 115:0.008547 120:0.017094 
-1 1:0.797665 2:0.132296 3:0.054475 4:0.011673 5:0.003891 6:0.817121 7:0.062257 10:0.023346 11:0.007782 14:0.163424 15:0.151751 16:0.190661 17:0.202335 18:0.291829 21:0.416342 24:0.011673 25:0.007782 26:0.136187 27:0.062257 28:0.128405 30:0.019455 31:0.163424 33:0.054475 35:0.980545 38:0.019455 40:0.011673 41:0.027237 42:0.92607 43:0.023346 45:0.011673 47:0.003891 48:0.128405 49:0.245136 50:0.140078 51:0.003891 52:0.015564 53:0.167315 54:0.066148 55:0.035019 56:0.054475 57:0.046693 58:0.003891 62:0.638132 64:0.217899 65:0.054475 66:0.089494 67:0.883268 68:0.003891 69:0.003891 70:0.019455 71:0.089494 72:0.264591 73:0.735409 74:0.976654 75:0.023346 76:0.992218 77:0.007782 78:0.533074 79:0.093385 80:0.299611 81:0.019455 82:0.054475 83:0.817121 87:0.003891 103:0.124514 107:0.007782 111:0.003891 114:0.015564 119:0.015564 121:0.003891 
-1 1:0.012195 2:0.432927 3:0.310976 4:0.140244 5:0.103659 6:0.786585 7:0.10061 8:0.012195 9:0.018293 10:0.027439 11:0.030488 14:0.253049 15:0.198171 16:0.189024 17:0.158537 18:0.20122 22:1 36:1 41:0.356707 42:0.545732 43:0.067073 44:0.015244 45:0.015244 47:0.003049 48:0.280488 49:0.070122 50:0.067073 51:0.054878 52:0.021341 53:0.137195 54:0.106707 55:0.051829 56:0.033537 57:0.134146 59:0.015244 62:0.222561 64:0.637195 65:0.036585 66:0.103659 67:0.865854 68:0.021341 69:0.009146 70:0.012195 71:0.091463 73:1 74:0.960366 75:0.039634 76:0.960366 77:0.039634 78:0.057927 79:0.033537 80:0.707317 81:0.067073 82:0.134146 83:0.939024 86:0.006098 94:0.003049 97:0.003049 100:0.003049 102:0.009146 103:0.003049 105:0.009146 106:0.003049 112:0.003049 117:0.003049 
-1 1:0.032787 2:0.590164 3:0.213115 4:0.114754 5:0.04918 6:0.491803 7:0.04918 8:0.016393 9:0.081967 10:0.098361 11:0.081967 14:0.229508 15:0.278689 16:0.131148 17:0.196721 18:0.163934 20:1 37:1 40:0.229508 41:0.016393 42:0.590164 43:0.098361 44:0.032787 45:0.032787 47:0.081967 49:0.196721 50:0.114754 52:0.016393 53:0.032787 54:0.016393 55:0.311475 57:0.016393 59:0.032787 61:0.229508 62:0.245902 64:0.032787 65:0.081967 66:0.409836 67:0.262295 68:0.04918 70:0.032787 71:0.655738 72:0.934426 73:0.065574 74:0.967213 75:0.032787 76:0.95082 77:0.04918 78:0.147541 79:0.081967 80:0.721311 81:0.032787 82:0.016393 83:0.868852 90:0.016393 95:0.016393 111:0.016393 116:0.016393 
-1 1:0.12381 2:0.209524 3:0.266667 4:0.352381 5:0.047619 6:0.838095 7:0.057143 8:0.019048 9:0.009524 10:0.019048 11:0.028571 14:0.104762 15:0.152381 16:0.2 17:0.171429 18:0.371429 21:0.32381 26:0.095238 27:0.12381 28:0.057143 30:0.057143 31:0.171429 33:0.152381 34:0.019048 35:1 40:0.933333 41:0.019048 43:0.019048 45:0.028571 47:0.009524 48:0.295238 49:0.095238 50:0.038095 51:0.038095 52:0.009524 53:0.12381 54:0.152381 55:0.019048 56:0.028571 57:0.152381 59:0.009524 63:0.933333 64:0.019048 65:0.028571 66:0.019048 67:0.904762 69:0.009524 70:0.028571 71:0.057143 73:1 74:0.971429 75:0.028571 76:0.971429 77:0.028571 78:0.028571 79:0.057143 80:0.647619 81:0.047619 82:0.219048 83:0.657143 86:0.028571 87:0.009524 95:0.009524 101:0.009524 103:0.219048 104:0.009524 114:0.019048 119:0.009524 
-1 1:0.844961 2:0.100775 3:0.031008 4:0.015504 5:0.007752 6:0.72093 7:0.031008 8:0.007752 9:0.023256 10:0.015504 11:0.062016 14:0.162791 15:0.116279 16:0.178295 17:0.20155 18:0.341085 20:1 37:1 41:0.085271 42:0.891473 43:0.023256 47:0.015504 48:0.046512 49:0.209302 50:0.162791 51:0.023256 52:0.046512 53:0.062016 54:0.03876 55:0.170543 56:0.023256 57:0.03876 59:0.023256 62:0.782946 64:0.116279 65:0.062016 66:0.03876 67:0.79845 68:0.069767 69:0.007752 70:0.007752 71:0.116279 72:0.317829 73:0.682171 74:0.984496 75:0.015504 76:0.984496 77:0.015504 79:0.116279 80:0.852713 81:0.023256 82:0.007752 83:0.852713 88:0.007752 90:0.007752 95:0.007752 96:0.015504 97:0.007752 99:0.007752 101:0.015504 102:0.015504 103:0.007752 108:0.007752 111:0.015504 119:0.007752 
-1 3:0.020408 4:0.387755 5:0.591837 6:0.122449 7:0.081633 8:0.612245 11:0.183673 15:0.346939 16:0.612245 18:0.040816 19:0.020408 23:0.734694 29:0.22449 32:0.020408 39:1 40:1 51:0.489796 52:0.510204 63:1 67:0.77551 68:0.061224 71:0.163265 73:1 75:1 76:1 80:0.285714 81:0.346939 82:0.367347 83:0.918367 90:0.061224 
-1 1:0.063291 2:0.075949 3:0.101266 4:0.164557 5:0.594937 6:0.582278 7:0.088608 9:0.037975 10:0.075949 11:0.126582 14:0.227848 15:0.202532 16:0.202532 17:0.189873 18:0.177215 20:1 37:1 40:0.025316 41:0.759494 42:0.012658 43:0.025316 44:0.177215 47:0.050633 48:0.075949 49:0.037975 50:0.063291 51:0.189873 52:0.037975 54:0.050633 55:0.367089 57:0.012658 58:0.012658 59:0.012658 61:0.025316 64:0.936709 65:0.037975 67:0.886076 68:0.012658 69:0.025316 71:0.075949 72:0.987342 73:0.012658 74:0.987342 75:0.012658 76:0.987342 77:0.012658 78:0.189873 79:0.164557 80:0.544304 82:0.101266 83:0.974684 87:0.012658 100:0.012658 
-1 2:0.007576 3:0.015152 5:0.977273 6:0.44697 7:0.242424 8:0.022727 10:0.090909 11:0.015152 14:0.265152 15:0.166667 16:0.219697 17:0.257576 18:0.090909 21:0.143939 24:0.007576 26:0.121212 27:0.340909 28:0.083333 30:0.037879 31:0.189394 33:0.060606 34:0.015152 35:0.992424 38:0.007576 40:0.742424 41:0.083333 42:0.045455 43:0.015152 44:0.083333 45:0.030303 48:0.181818 49:0.075758 50:0.037879 51:0.083333 52:0.007576 53:0.037879 54:0.060606 55:0.007576 56:0.166667 57:0.143939 59:0.015152 62:0.007576 63:0.734848 64:0.189394 65:0.037879 66:0.030303 67:0.863636 68:0.007576 69:0.007576 70:0.007576 71:0.113636 73:1 74:0.954545 75:0.045455 76:0.992424 77:0.007576 78:0.272727 79:0.037879 80:0.484848 81:0.037879 82:0.166667 83:0.863636 86:0.007576 87:0.030303 88:0.007576 93:0.007576 95:0.007576 99:0.007576 103:0.007576 109:0.007576 112:0.007576 114:0.007576 119:0.007576 120:0.007576 
-0.3730099175571783 1:0.038889 2:0.177778 3:0.166667 4:0.133333 5:0.483333 6:0.727778 7:0.05 9:0.022222 10:0.022222 11:0.033333 12:0.011111 14:0.177778 15:0.216667 16:0.177778 17:0.155556 18:0.272222 21:0.155556 26:0.177778 27:0.177778 28:0.061111 30:0.061111 31:0.255556 33:0.094444 34:0.016667 35:1 40:0.116667 41:0.261111 42:0.255556 43:0.105556 44:0.172222 45:0.088889 47:0.005556 48:0.05 49:0.344444 50:0.055556 51:0.016667 52:0.005556 53:0.044444 54:0.238889 55:0.055556 56:0.027778 57:0.005556 58:0.016667 61:0.1 62:0.038889 64:0.427778 65:0.05 66:0.383333 67:0.677778 68:0.077778 69:0.005556 70:0.027778 71:0.211111 72:0.916667 73:0.083333 74:0.988889 75:0.011111 76:0.988889 77:0.011111 78:0.25 79:0.122222 80:0.511111 81:0.033333 82:0.083333 83:0.727778 84:0.005556 86:0.005556 90:0.005556 94:0.05 95:0.022222 100:0.005556 101:0.011111 103:0.072222 104:0.005556 107:0.022222 108:0.005556 111:0.005556 112:0.005556 114:0.005556 119:0.022222 
-0.9501538388757261 1:0.363636 2:0.350649 3:0.155844 4:0.116883 5:0.012987 6:0.896104 7:0.038961 8:0.012987 10:0.012987 11:0.025974 14:0.25974 15:0.064935 16:0.233766 17:0.272727 18:0.168831 22:1 36:1 40:0.090909 41:0.025974 42:0.74026 43:0.038961 44:0.038961 45:0.025974 46:0.038961 49:0.818182 50:0.025974 52:0.025974 54:0.012987 55:0.012987 56:0.090909 61:0.064935 62:0.38961 64:0.220779 65:0.051948 66:0.272727 67:0.948052 68:0.038961 70:0.012987 72:0.935065 73:0.064935 74:1 76:1 78:0.558442 79:0.25974 80:0.103896 81:0.025974 82:0.051948 83:0.87013 98:0.025974 99:0.012987 100:0.012987 103:0.025974 110:0.012987 112:0.025974 
-1 1:0.959732 3:0.013423 4:0.020134 5:0.006711 6:0.899329 7:0.020134 9:0.026846 10:0.020134 11:0.006711 14:0.295302 15:0.127517 16:0.154362 17:0.174497 18:0.248322 22:1 36:1 40:0.006711 42:0.966443 43:0.020134 45:0.006711 47:0.006711 48:0.174497 49:0.09396 50:0.080537 51:0.006711 52:0.020134 53:0.181208 54:0.080537 55:0.087248 56:0.147651 57:0.073826 59:0.013423 60:0.006711 62:0.456376 64:0.362416 65:0.161074 66:0.020134 67:0.899329 68:0.006711 69:0.006711 70:0.006711 71:0.080537 72:0.013423 73:0.986577 74:0.986577 75:0.013423 76:0.986577 77:0.013423 78:0.073826 79:0.107383 80:0.604027 81:0.060403 82:0.154362 83:0.899329 87:0.013423 100:0.006711 101:0.006711 103:0.013423 104:0.013423 107:0.006711 114:0.006711 119:0.020134 121:0.006711 
-1 1:0.02 2:0.426667 3:0.206667 4:0.186667 5:0.16 6:0.646667 7:0.066667 8:0.026667 9:0.046667 10:0.073333 11:0.113333 14:0.22 15:0.186667 16:0.166667 17:0.206667 18:0.22 19:0.766667 23:0.04 29:0.173333 32:0.02 39:1 41:0.22 42:0.713333 43:0.013333 44:0.02 45:0.033333 47:0.06 48:0.033333 49:0.06 50:0.113333 51:0.18 52:0.353333 53:0.006667 54:0.026667 55:0.06 56:0.02 57:0.026667 59:0.033333 62:0.08 64:0.853333 65:0.033333 66:0.033333 67:0.846667 68:0.066667 69:0.006667 70:0.013333 71:0.066667 73:1 74:0.98 75:0.02 76:0.96 77:0.04 78:0.186667 79:0.066667 80:0.4 81:0.113333 82:0.233333 83:0.826667 88:0.006667 90:0.013333 94:0.013333 95:0.013333 96:0.006667 101:0.006667 102:0.006667 103:0.006667 104:0.006667 106:0.006667 112:0.006667 116:0.006667 119:0.006667 120:0.006667 122:0.006667 
-0.6854973945042425 1:0.205128 2:0.128205 3:0.384615 4:0.153846 5:0.128205 6:0.641026 7:0.051282 8:0.051282 9:0.076923 10:0.076923 11:0.051282 14:0.179487 15:0.25641 16:0.076923 17:0.333333 18:0.153846 24:0.512821 25:0.487179 38:1 40:0.25641 41:0.230769 42:0.410256 43:0.051282 44:0.025641 45:0.025641 47:0.102564 48:0.051282 49:0.128205 50:0.179487 51:0.051282 52:0.102564 55:0.25641 58:0.025641 59:0.051282 61:0.102564 62:0.25641 63:0.102564 64:0.205128 65:0.102564 66:0.230769 67:0.102564 68:0.205128 69:0.051282 71:0.641026 72:0.692308 73:0.307692 74:0.948718 75:0.051282 76:0.974359 77:0.025641 78:0.179487 79:0.153846 80:0.589744 81:0.025641 82:0.051282 83:0.794872 86:0.025641 98:0.051282 101:0.051282 111:0.025641 
-1 1:0.03876 2:0.127907 3:0.22093 4:0.209302 5:0.403101 6:0.627907 7:0.05814 8:0.015504 9:0.042636 10:0.104651 11:0.050388 14:0.158915 15:0.217054 16:0.251938 17:0.189922 18:0.182171 22:1 36:1 40:0.116279 41:0.573643 42:0.015504 43:0.096899 44:0.189922 45:0.007752 47:0.007752 48:0.065891 49:0.139535 50:0.116279 51:0.085271 52:0.015504 53:0.007752 54:0.085271 55:0.313953 56:0.034884 57:0.015504 58:0.007752 59:0.003876 61:0.108527 62:0.050388 64:0.352713 65:0.027132 66:0.46124 67:0.972868 68:0.007752 69:0.007752 70:0.003876 71:0.007752 72:0.976744 73:0.023256 74:0.972868 75:0.027132 76:0.98062 77:0.01938 78:0.255814 79:0.155039 80:0.449612 81:0.03876 82:0.100775 83:0.930233 85:0.003876 86:0.011628 87:0.003876 88:0.007752 91:0.003876 95:0.007752 96:0.003876 103:0.003876 113:0.003876 116:0.003876 119:0.003876 
-0.737167887674917 1:0.544643 2:0.241071 3:0.116071 4:0.0625 5:0.035714 6:0.830357 7:0.035714 9:0.008929 10:0.017857 11:0.026786 14:0.258929 15:0.133929 16:0.267857 17:0.116071 18:0.223214 20:1 37:1 40:0.080357 42:0.901786 43:0.017857 47:0.053571 48:0.026786 49:0.276786 50:0.133929 51:0.053571 52:0.0625 53:0.008929 54:0.035714 55:0.241071 57:0.008929 58:0.008929 59:0.008929 61:0.080357 62:0.008929 64:0.785714 65:0.098214 66:0.026786 67:0.883929 68:0.026786 70:0.026786 71:0.0625 72:1 74:0.982143 75:0.017857 76:0.973214 77:0.026786 78:0.4375 79:0.160714 80:0.267857 81:0.035714 82:0.098214 83:0.919643 88:0.008929 91:0.008929 98:0.008929 101:0.008929 102:0.008929 112:0.008929 119:0.008929 123:0.008929 
-1 1:0.196319 2:0.288344 3:0.214724 4:0.159509 5:0.141104 6:0.748466 7:0.055215 8:0.006135 9:0.018405 10:0.067485 11:0.030675 14:0.153374 15:0.190184 16:0.263804 17:0.220859 18:0.171779 24:0.453988 25:0.546012 38:1 40:0.02454 41:0.282209 42:0.564417 43:0.067485 44:0.030675 45:0.030675 47:0.110429 48:0.08589 49:0.08589 50:0.134969 51:0.079755 52:0.104294 53:0.01227 54:0.018405 55:0.226994 56:0.018405 57:0.02454 59:0.02454 61:0.01227 62:0.208589 64:0.576687 65:0.030675 66:0.171779 67:0.969325 68:0.01227 69:0.01227 70:0.006135 72:0.601227 73:0.398773 74:0.969325 75:0.030675 76:0.969325 77:0.030675 78:0.153374 79:0.055215 80:0.601227 81:0.055215 82:0.134969 83:0.91411 85:0.006135 87:0.006135 88:0.01227 100:0.018405 102:0.006135 106:0.006135 112:0.006135 
